{
  "metadata": {
    "version": "0.2.0",
    "exported": "2025-07-05T12:21:46.021Z",
    "model": "all",
    "format": "json"
  },
  "models": {
    "attention": {
      "layers": 6,
      "parameters": 440407,
      "weights": [
        0.09824187350261071,
        -0.09360532181102443,
        0.012641125393315633,
        0.10109608752113486,
        -0.47570918643943516,
        0.33774677367250394,
        -0.26370943512916245,
        -0.48275662288982635,
        -0.05385741119610121,
        0.39463979907179225,
        0.2891753153932417,
        -0.2308605406901949,
        0.03816700314224164,
        -0.19562476836849352,
        0.10462216981659145,
        0.11016694226509993,
        -0.09103781809449418,
        0.22229090911091398,
        -0.14777785053067793,
        0.12774387115603125,
        0.19699326574972797,
        -0.31101558975077337,
        0.19306507119399696,
        0.3178199903651955,
        0.45023436259850613,
        0.286757698033024,
        -0.15858561671382865,
        0.10615229845755936,
        0.05967286371194058,
        0.15577586905160934,
        0.11715444426878419,
        0.44162855068080864,
        -0.35170468267850086,
        0.4007828470237276,
        0.2356480952513884,
        -0.4440062844088468,
        -0.26439362096767893,
        0.2713010271378047,
        0.18964830492040186,
        -0.48918837717150687,
        -0.36538117367582523,
        0.11159416853401805,
        -0.41023902217100994,
        -0.0736085291495896,
        -0.25010773346431936,
        -0.48340864904377745,
        0.3031989291080788,
        -0.4961262003696576,
        0.14215223911718122,
        0.38139441852862643,
        0.14747928084050876,
        0.3986844580834803,
        -0.4626986634145158,
        0.2829112000473679,
        0.2906005436177994,
        0.08439476395681034,
        -0.4274032947510842,
        -0.052430276939092524,
        -0.41973084744873645,
        -0.4146559891410042,
        -0.06411368457406419,
        0.06731413838206501,
        -0.14668168989297192,
        -0.06519097503312898,
        0.4134107664756803,
        -0.0415089187353761,
        -0.3234293825351573,
        0.33952278575233397,
        0.323659558319235,
        -0.16653080962791655,
        -0.3455036133378373,
        0.0008040605601378203,
        0.1878566852220831,
        -0.31430540994478107,
        -0.1387334149813575,
        -0.2678969760427581,
        0.2730420394633186,
        -0.4312260229665166,
        -0.19959967182809946,
        0.36335724614212417,
        0.3440810786378874,
        0.11865289297067316,
        0.24064624120254963,
        0.22829968926677768,
        -0.1716688480689348,
        0.18060937535533284,
        0.10383980006130722,
        -0.19851249757807388,
        0.23556940814406713,
        -0.19676891120437467,
        0.2365961435700954,
        0.2761436959267429,
        0.2746957225945341,
        0.29597530288110896,
        -0.1676867788100891,
        -0.40154248108638546,
        -0.3260749128521254,
        0.06816037220453319,
        -0.4950555876403644,
        -0.1781319667001806
      ],
      "biases": [
        -0.49603577603899507,
        0.11194334170117082,
        -0.33073881687709683,
        -0.4560158565906074,
        -0.1392375844065663,
        0.009584526262967241,
        0.42580547332036645,
        -0.16158339667896215,
        0.48037365141947896,
        -0.08755650846058383,
        -0.33132902148203547,
        -0.3915934146002009,
        -0.005130016126080106,
        -0.2665901935255859,
        -0.029652567100350247,
        -0.4775150686441698,
        0.06711935090362409,
        -0.1738558078335719,
        -0.09596244746361915,
        0.11660917559343531,
        0.04524081253023482,
        0.17178603899969702,
        0.4003547160309042,
        -0.18511627749182802,
        -0.4012281076705084,
        0.19975352052650286,
        -0.3062774043988987,
        0.06924670937226773,
        0.22800339500068967,
        0.4547040311211341,
        -0.31983537964977127,
        -0.31175650177297887,
        0.10493058196750127,
        -0.32544320530071147,
        -0.47708824850512377,
        0.43160102100086806,
        0.27580489834462685,
        -0.15552408211482716,
        0.18337704998924353,
        -0.41863836253065756,
        0.09826161107435594,
        -0.3382407852423479,
        0.2803580125536469,
        0.472682487069114,
        -0.12258108036863913,
        0.2242975388451356,
        -0.07517174388896386,
        0.015555064341436386,
        -0.42593669993339134,
        -0.004728086400419107
      ],
      "performance": {
        "accuracy": "85.59",
        "loss": "0.0459"
      }
    },
    "lstm": {
      "layers": 5,
      "parameters": 1036756,
      "weights": [
        0.21729402723889168,
        0.4643202641496724,
        0.2836311505544138,
        -0.0788884956630942,
        -0.10879066238725343,
        0.3058274693922789,
        -0.3904713734978431,
        0.16790443320318515,
        -0.4686780278767224,
        0.28607111227184223,
        -0.3032920419276417,
        -0.16621033191808143,
        0.2773363151791164,
        0.05778528623332457,
        -0.0981122037215052,
        -0.3961452307424371,
        0.39970905806567236,
        -0.31030263922534784,
        0.33331394362755695,
        -0.2826147291872523,
        -0.4666780333697673,
        0.44020197520201854,
        0.3677665172496356,
        0.17637616568034997,
        -0.35469349185228594,
        -0.20782521233286277,
        0.22420845488653218,
        -0.3962857829697839,
        -0.15037274620817365,
        0.2672570382255566,
        -0.08066952661705917,
        -0.11577692002186546,
        -0.23555764056943596,
        -0.032982666801350646,
        0.332749233150224,
        -0.2416651395559073,
        0.08695875147339693,
        -0.09851443934616388,
        0.33900465364483634,
        -0.14830709527074992,
        -0.34789447011703545,
        0.4392792640943377,
        -0.31072343562664906,
        0.4232806173905068,
        0.07729379082157894,
        -0.017760393730603674,
        0.1478993060905387,
        0.45832969806681745,
        0.37501152629792367,
        -0.09583408286066764,
        0.12387455662580793,
        0.18056706663728206,
        -0.1868409655786345,
        -0.04208856300962527,
        -0.2600995188248345,
        0.1544419451858292,
        0.3839688862937738,
        0.08536729966143008,
        0.17459068965521163,
        -0.15853924396881558,
        0.39369870678829,
        -0.3477813502120446,
        -0.38901580947337977,
        0.034576975865410864,
        0.12642445644892164,
        0.34786164087235605,
        -0.39556653614961723,
        -0.34897900880516497,
        0.4107984105346718,
        0.38088264223685364,
        -0.08184285291679783,
        -0.24864831062394677,
        0.07231434893021738,
        -0.3795562032343427,
        0.13111581549832318,
        -0.45930043366616413,
        -0.18150079508817485,
        -0.45959552297836237,
        -0.4308222185730688,
        -0.0349853723720408,
        0.14359650131540413,
        0.0896551931405305,
        -0.13381738236213248,
        0.0670317832357008,
        -0.1094419139314955,
        -0.48474944326801883,
        -0.3036753747755081,
        -0.3926778832168354,
        0.36182415001479384,
        -0.12336508571262672,
        0.4059743113577128,
        0.2386446271872873,
        0.24138270653442606,
        0.229412880912353,
        0.21195336487127947,
        0.10788125889350941,
        0.3076765402792976,
        0.45091326823398403,
        0.48427459892556546,
        -0.37445221435788145
      ],
      "biases": [
        -0.13970878170836154,
        -0.0995803666944941,
        0.3500075205955093,
        -0.17898333947679368,
        -0.2919552629062092,
        -0.43244737845203973,
        -0.10113379262246935,
        -0.32582982082128775,
        0.342360331296236,
        0.0168302652819452,
        0.30147357228161664,
        0.36244375522547334,
        -0.05892367611856697,
        0.4494237150907263,
        -0.05984295006522933,
        0.487057029758563,
        0.12932147695861906,
        -0.15427875276159608,
        -0.23255112863627447,
        -0.19186981670071845,
        -0.07561368951695413,
        -0.49239812618332435,
        0.43786616495605624,
        0.2333889353809946,
        0.40058096365239515,
        0.2021554629086686,
        -0.02636084889618706,
        -0.4858656185129655,
        0.4004174006983703,
        -0.4643259140464995,
        0.45096410662923625,
        -0.14085523707926706,
        -0.14673352850248889,
        0.2943233003744006,
        -0.4074404805308105,
        -0.253554357218724,
        -0.3340851055117571,
        0.41274702399035235,
        0.024373087067250943,
        -0.4545350800195229,
        -0.37632041321200194,
        0.24630268431675062,
        0.2750176669853257,
        0.2708887738171226,
        -0.20877381707631648,
        -0.1430930101573884,
        0.35959563304993725,
        -0.21508600580199166,
        -0.1678828289814056,
        0.4609271176357277
      ],
      "performance": {
        "accuracy": "91.61",
        "loss": "0.0139"
      }
    },
    "transformer": {
      "layers": 5,
      "parameters": 923749,
      "weights": [
        0.32014670532830536,
        -0.18358262531392744,
        -0.20062365553493167,
        -0.32995281081196337,
        -0.3786402380892,
        0.35947345598686553,
        0.25234806703268897,
        -0.37845003441457226,
        -0.021594923926993692,
        -0.449510167567587,
        0.38849634904232677,
        -0.02065827401742082,
        -0.27800719389309436,
        -0.1604577207204303,
        0.017158498225311458,
        -0.17998438915558101,
        -0.2798442925186333,
        0.3387415106542693,
        0.27536441785539756,
        -0.4709842094960712,
        -0.2308192821315347,
        0.4034540228539194,
        -0.4461948059475209,
        -0.38086295642761514,
        -0.04030771269842415,
        0.3115225603949312,
        -0.42573587173829774,
        -0.24105481851554011,
        0.13565396701390298,
        0.15790322823912173,
        0.46080529649270674,
        0.3377793486644587,
        -0.36114072799005403,
        0.38491202494537746,
        0.4432754742432574,
        -0.29047701958849537,
        -0.4872554803249063,
        0.10634132374481386,
        0.45277946236274214,
        0.34379752763809335,
        -0.36387347746606924,
        -0.17175594770085012,
        0.09444128673121033,
        -0.010788596660718408,
        0.21692697079797463,
        -0.21762150386732282,
        -0.182639517356584,
        -0.17033799873790367,
        -0.15212305061089815,
        0.2748857490735408,
        0.3206293942713796,
        0.377816195109808,
        -0.48681685982652945,
        -0.2865349253358729,
        -0.4059150005055914,
        0.045910077839876884,
        0.14917984134416917,
        -0.45511208169462436,
        -0.13347221137890575,
        0.03549276280525726,
        0.20052652414427152,
        -0.36089717137001087,
        -0.09719968222605169,
        -0.4785332372426936,
        -0.08594846184807436,
        0.37979275627685505,
        0.17227114963477486,
        0.2392550632868622,
        0.2086703350310326,
        -0.29193660752370354,
        -0.1161089081176605,
        -0.2726474491812001,
        0.482691841150799,
        -0.07663826003505281,
        0.08474953332830193,
        0.4768852251566742,
        -0.05220686037928246,
        -0.2382099871986476,
        -0.08432658211731447,
        -0.04028196778886306,
        -0.32789239853679253,
        0.24516569426518053,
        -0.4631293286874878,
        0.33331327275511935,
        0.36682772720153745,
        -0.10668952200726922,
        0.10439147241169255,
        -0.3308469255653528,
        -0.2361255947145724,
        0.01240300197284161,
        -0.03326192876949707,
        -0.27513863996129073,
        -0.3130236411503853,
        -0.012055705001695394,
        0.016671638675647804,
        0.3042396555240954,
        0.06899390745002565,
        -0.0030060841492940416,
        0.288761634145579,
        -0.49497941526366973
      ],
      "biases": [
        -0.4406141305393947,
        0.3030936438251668,
        0.18309073731333347,
        -0.08247291591444572,
        -0.38040913891400785,
        0.1309087080836533,
        -0.20481062468136946,
        -0.3505857231452101,
        -0.20758448213373382,
        -0.018125999821537953,
        0.26195990412170533,
        0.012491492265650272,
        -0.4034285133136486,
        -0.17613496939372508,
        -0.03582856221342201,
        0.32661890594766874,
        -0.42520013898140685,
        0.08097163774380389,
        0.020287395770240524,
        0.2935494010690005,
        -0.39985533444871546,
        0.02415374883913257,
        -0.3698998993430209,
        0.41756943497838206,
        0.05145123903711024,
        -0.0339598578859186,
        -0.09542732035346035,
        0.08784693788277576,
        -0.19577530209992067,
        -0.19944326978716376,
        0.2863688209901436,
        -0.1489753888986065,
        0.44608096900967587,
        -0.14823818863856308,
        0.2609677812757807,
        -0.39230364406382723,
        -0.28106678960585385,
        -0.18908674455099228,
        0.4294280005194786,
        0.27797284591608795,
        0.37887701868343204,
        0.2893968735640291,
        0.15605587377045582,
        0.04301534914263394,
        0.4610007828823173,
        0.4663476396337516,
        -0.09672827722810329,
        -0.35808817109089475,
        -0.4094571674841867,
        -0.3213950252382869
      ],
      "performance": {
        "accuracy": "92.87",
        "loss": "0.0118"
      }
    },
    "feedforward": {
      "layers": 4,
      "parameters": 584085,
      "weights": [
        0.36716230924679016,
        -0.06338193554763194,
        -0.46371033999738587,
        -0.27043695920858757,
        -0.13190502780069235,
        -0.006502019863459774,
        0.29953061638027445,
        0.16536451535448693,
        -0.2352934902435142,
        -0.017647197969214545,
        -0.37428711699963135,
        -0.4428203897719094,
        0.10110172229940906,
        -0.05466533952193564,
        0.47156716293906276,
        -0.09887422060686424,
        -0.23632528002612685,
        0.31813775946177003,
        -0.22543408501783313,
        -0.4328379006887477,
        0.3237153914075326,
        0.4139843183002907,
        -0.02335700340205138,
        -0.057957066764466436,
        -0.4636945713288385,
        0.34244152148479157,
        0.3161277836420595,
        0.19914027570695025,
        -0.3319738763004185,
        -0.06711757594856582,
        -0.13937650923012002,
        0.21957141659640622,
        -0.05440633443123444,
        0.10504118388808736,
        -0.44440699797505023,
        0.31667509944504624,
        -0.07251921935352712,
        -0.3436927103950831,
        0.10098849083967765,
        -0.3079013223967213,
        -0.27260296663389805,
        -0.04888016339234502,
        -0.13710903112144557,
        -0.12915725193055128,
        -0.328034856334785,
        -0.2577290176720528,
        -0.18716570637945096,
        -0.15099630165621103,
        -0.08370205832529276,
        0.4304698826101645,
        -0.1311723167109906,
        -0.04445996658223672,
        -0.029595575016614584,
        0.4394354804189269,
        0.29809990723647584,
        0.43000147595396454,
        -0.34184658051439865,
        0.3116967722945858,
        -0.06802886299151845,
        -0.10880139214860507,
        0.2938569493309042,
        0.020887513774311195,
        -0.36315507562048244,
        -0.38133302694768045,
        0.1581041314951519,
        0.33354465825325774,
        -0.09664081300411898,
        0.05014470171536445,
        0.28675438602668546,
        -0.0075181444742851156,
        -0.10336007785806922,
        0.14822301194459064,
        0.148154663662055,
        -0.48908829556674815,
        0.14685821661027876,
        -0.45403877804378934,
        0.10898962138608748,
        -0.3126662076248261,
        -0.11193670737723438,
        -0.15946065098848794,
        -0.1603186863925754,
        -0.25430533325365134,
        0.1311605915016909,
        -0.41451471551323915,
        -0.078649297509223,
        -0.21315476702612735,
        -0.1884101119515531,
        0.2961878541247984,
        -0.09867609912948638,
        -0.39762822196188385,
        -0.36282713730568394,
        0.4632512106317592,
        -0.013456265900170683,
        0.042017460263066964,
        -0.3362908513970104,
        0.320296579433224,
        -0.35675574990823944,
        0.06455616924342555,
        0.3779814638807715,
        -0.029005165752988615
      ],
      "biases": [
        -0.2817279474391241,
        -0.10855255495980987,
        0.2461134106054823,
        0.2991750350383744,
        0.4083259828034984,
        -0.03691729038435532,
        -0.058829196284440055,
        -0.4822130189537266,
        0.4542830587433775,
        -0.3742515067731278,
        0.32427358975310905,
        -0.4063888915042513,
        0.31451464388702255,
        -0.25432404256909913,
        0.015441111090832571,
        0.2026218244722382,
        -0.1122462360959251,
        -0.4894261573639562,
        -0.1421047177135113,
        0.01925192669737119,
        0.23643128757995102,
        -0.22946018112731115,
        -0.24908855836999266,
        0.11855633329847182,
        0.06509462687321688,
        0.46149038935165976,
        -0.12223577209230929,
        -0.1041297969515591,
        0.18354316573500506,
        0.37528886446963194,
        0.39527948753572484,
        -0.20875772103818813,
        0.13814628724146938,
        -0.22969500120674202,
        0.3607955249941601,
        0.4014042018344335,
        -0.4501224503115995,
        -0.17760458935232126,
        -0.49645216826153726,
        0.18997870514132287,
        0.4649548862614947,
        -0.04513726205009938,
        -0.03240395115661965,
        0.3309120943069661,
        0.4988354876132297,
        0.015386540888840505,
        -0.40912277484229365,
        0.29600672398504013,
        -0.024056715272938956,
        -0.33760170847604476
      ],
      "performance": {
        "accuracy": "89.07",
        "loss": "0.0318"
      }
    }
  }
}